3 7 3 8 8 4
-0.0732163 -0.428264 -0.500692 -0.680239 -1.25973 0.585552 0.29539 1.03545 -1.20259 0.385609 0.343849 0.658253 -0.929242 -2.19739 1.41056 -1.6651 0.222799 0.0724379 0.575797 -0.810389 -3.06627 0.840019 -0.925314 -0.419618 -0.453477 -0.345627 0.0198263 0.282609 0.66735 -0.256797 1.51629 0.99179 0.954013 -0.197245 -0.308231 -0.512888 0.441677 -2.04553 -2.05378 -1.68207 0.908347 1.34557 1.10791 -0.948095 -0.456746 -0.212265 -0.40707 0.260597 0.80816 -3.44208 3.45985 -1.73982 -1.61941 -1.2248 1.94386 -0.396544 
0.394179 -0.614298 -1.20653 -0.878068 -0.455801 2.70111 -0.0773163 3.43755 
-0.194497 -0.546749 -0.0914616 0.267749 0.344964 -0.32319 0.104105 -1.82703 0.0954118 0.679504 0.959566 0.525935 -0.258968 -0.251249 0.764591 -0.572309 0.522344 -0.864401 -0.174628 -0.0630204 -0.511318 1.72156 0.121509 0.49517 0.108323 -0.594772 0.477757 0.324014 -0.140908 1.24086 0.475626 0.698507 -0.0946025 0.783383 1.25182 0.842243 0.309948 0.0252361 1.12754 -0.727751 -0.030962 -0.511039 -0.444501 -0.474299 0.0807269 0.879338 -0.613411 2.27944 -0.409423 -0.289907 0.0441531 -0.290295 0.409714 -0.882396 0.0943707 -1.45673 0.219195 0.391652 0.522484 -0.0328627 0.0328479 -1.06235 0.570022 -2.52388 
-0.276472 -0.145572 0.361192 0.403754 -0.582977 -0.130815 0.443772 0.159552 
0.145222 -1.42762 -0.0353929 -0.447512 -1.91178 0.826338 0.234939 -0.40286 -0.536276 0.895593 1.14267 1.07228 0.729257 -0.448 -0.935466 -0.00922095 -0.45807 -0.35104 0.929489 0.647386 0.478729 0.622626 -0.940504 -0.882475 -1.37001 -0.323219 0.48353 0.458128 -0.36938 0.908993 -0.457516 -1.0558 
-0.105754 0.557613 -0.50543 -0.041233 
-3.71147 0.51116 -0.26335 -1.13889 3.65547 2.98599 0.987951 -0.465539 1.49073 -3.93076 0.141488 1.59776 
0.749905 -3.33473 -3.21327 
